Language model created by QuickLM on Sun Jun 26 07:51:57 EDT 2022
Copyright (c) 1996-2010 Carnegie Mellon University and Alexander I. Rudnicky

The model is in standard ARPA format, designed by Doug Paul while he was at MITRE.

The code that was used to produce this language model is available in Open Source.
Please visit http://www.speech.cs.cmu.edu/tools/ for more information

The (fixed) discount mass is 0.5. The backoffs are computed using the ratio method.
This model based on a corpus of 14 sentences and 16 words

\data\
ngram 1=16
ngram 2=28
ngram 3=14

\1-grams:
-0.7782 </s> -0.3010
-0.7782 <s> -0.2218
-1.9243 ANGRY -0.2218
-1.9243 CHIP -0.2218
-1.9243 CONFIRM -0.2218
-1.9243 FACE -0.2218
-1.9243 FLAG -0.2218
-1.9243 GET -0.2218
-1.9243 GIF -0.2218
-1.9243 HAPPY -0.2218
-1.9243 HELLO -0.2218
-1.9243 OH -0.2218
-1.9243 SAD -0.2218
-1.9243 SET -0.2218
-1.9243 VOLTAGE -0.2218
-1.9243 WHAT -0.2218

\2-grams:
-1.4472 <s> ANGRY 0.0000
-1.4472 <s> CHIP 0.0000
-1.4472 <s> CONFIRM 0.0000
-1.4472 <s> FACE 0.0000
-1.4472 <s> FLAG 0.0000
-1.4472 <s> GET 0.0000
-1.4472 <s> GIF 0.0000
-1.4472 <s> HAPPY 0.0000
-1.4472 <s> HELLO 0.0000
-1.4472 <s> OH 0.0000
-1.4472 <s> SAD 0.0000
-1.4472 <s> SET 0.0000
-1.4472 <s> VOLTAGE 0.0000
-1.4472 <s> WHAT 0.0000
-0.3010 ANGRY </s> -0.3010
-0.3010 CHIP </s> -0.3010
-0.3010 CONFIRM </s> -0.3010
-0.3010 FACE </s> -0.3010
-0.3010 FLAG </s> -0.3010
-0.3010 GET </s> -0.3010
-0.3010 GIF </s> -0.3010
-0.3010 HAPPY </s> -0.3010
-0.3010 HELLO </s> -0.3010
-0.3010 OH </s> -0.3010
-0.3010 SAD </s> -0.3010
-0.3010 SET </s> -0.3010
-0.3010 VOLTAGE </s> -0.3010
-0.3010 WHAT </s> -0.3010

\3-grams:
-0.3010 <s> ANGRY </s>
-0.3010 <s> CHIP </s>
-0.3010 <s> CONFIRM </s>
-0.3010 <s> FACE </s>
-0.3010 <s> FLAG </s>
-0.3010 <s> GET </s>
-0.3010 <s> GIF </s>
-0.3010 <s> HAPPY </s>
-0.3010 <s> HELLO </s>
-0.3010 <s> OH </s>
-0.3010 <s> SAD </s>
-0.3010 <s> SET </s>
-0.3010 <s> VOLTAGE </s>
-0.3010 <s> WHAT </s>

\end\