Language model created by QuickLM on Mon Jul 25 15:10:40 EDT 2022
Copyright (c) 1996-2010 Carnegie Mellon University and Alexander I. Rudnicky

The model is in standard ARPA format, designed by Doug Paul while he was at MITRE.

The code that was used to produce this language model is available in Open Source.
Please visit http://www.speech.cs.cmu.edu/tools/ for more information

The (fixed) discount mass is 0.5. The backoffs are computed using the ratio method.
This model based on a corpus of 36 sentences and 38 words

\data\
ngram 1=38
ngram 2=72
ngram 3=36

\1-grams:
-0.7782 </s> -0.3010
-0.7782 <s> -0.2218
-2.3345 ANGRY -0.2218
-2.3345 BALL -0.2218
-2.3345 BATTERY -0.2218
-2.3345 CANCEL -0.2218
-2.3345 CHIP -0.2218
-2.3345 COMMANDS -0.2218
-2.3345 CONFIRM -0.2218
-2.3345 EIGHT -0.2218
-2.3345 FACE -0.2218
-2.3345 FAN -0.2218
-2.3345 FLAG -0.2218
-2.3345 GET -0.2218
-2.3345 GIF -0.2218
-2.3345 HAPPY -0.2218
-2.3345 HEAT -0.2218
-2.3345 HELLO -0.2218
-2.3345 LOW -0.2218
-2.3345 MAN -0.2218
-2.3345 MATRIX -0.2218
-2.3345 OFF -0.2218
-2.3345 OH -0.2218
-2.3345 ON -0.2218
-2.3345 OVER -0.2218
-2.3345 OVERHEAT -0.2218
-2.3345 PACK -0.2218
-2.3345 PACMAN -0.2218
-2.3345 SAD -0.2218
-2.3345 SAY -0.2218
-2.3345 SEE -0.2218
-2.3345 SET -0.2218
-2.3345 SHAKE -0.2218
-2.3345 SNAKE -0.2218
-2.3345 TEST -0.2218
-2.3345 VOLTAGE -0.2218
-2.3345 WHAT -0.2218
-2.3345 WOOD -0.2218

\2-grams:
-1.8573 <s> ANGRY 0.0000
-1.8573 <s> BALL 0.0000
-1.8573 <s> BATTERY 0.0000
-1.8573 <s> CANCEL 0.0000
-1.8573 <s> CHIP 0.0000
-1.8573 <s> COMMANDS 0.0000
-1.8573 <s> CONFIRM 0.0000
-1.8573 <s> EIGHT 0.0000
-1.8573 <s> FACE 0.0000
-1.8573 <s> FAN 0.0000
-1.8573 <s> FLAG 0.0000
-1.8573 <s> GET 0.0000
-1.8573 <s> GIF 0.0000
-1.8573 <s> HAPPY 0.0000
-1.8573 <s> HEAT 0.0000
-1.8573 <s> HELLO 0.0000
-1.8573 <s> LOW 0.0000
-1.8573 <s> MAN 0.0000
-1.8573 <s> MATRIX 0.0000
-1.8573 <s> OFF 0.0000
-1.8573 <s> OH 0.0000
-1.8573 <s> ON 0.0000
-1.8573 <s> OVER 0.0000
-1.8573 <s> OVERHEAT 0.0000
-1.8573 <s> PACK 0.0000
-1.8573 <s> PACMAN 0.0000
-1.8573 <s> SAD 0.0000
-1.8573 <s> SAY 0.0000
-1.8573 <s> SEE 0.0000
-1.8573 <s> SET 0.0000
-1.8573 <s> SHAKE 0.0000
-1.8573 <s> SNAKE 0.0000
-1.8573 <s> TEST 0.0000
-1.8573 <s> VOLTAGE 0.0000
-1.8573 <s> WHAT 0.0000
-1.8573 <s> WOOD 0.0000
-0.3010 ANGRY </s> -0.3010
-0.3010 BALL </s> -0.3010
-0.3010 BATTERY </s> -0.3010
-0.3010 CANCEL </s> -0.3010
-0.3010 CHIP </s> -0.3010
-0.3010 COMMANDS </s> -0.3010
-0.3010 CONFIRM </s> -0.3010
-0.3010 EIGHT </s> -0.3010
-0.3010 FACE </s> -0.3010
-0.3010 FAN </s> -0.3010
-0.3010 FLAG </s> -0.3010
-0.3010 GET </s> -0.3010
-0.3010 GIF </s> -0.3010
-0.3010 HAPPY </s> -0.3010
-0.3010 HEAT </s> -0.3010
-0.3010 HELLO </s> -0.3010
-0.3010 LOW </s> -0.3010
-0.3010 MAN </s> -0.3010
-0.3010 MATRIX </s> -0.3010
-0.3010 OFF </s> -0.3010
-0.3010 OH </s> -0.3010
-0.3010 ON </s> -0.3010
-0.3010 OVER </s> -0.3010
-0.3010 OVERHEAT </s> -0.3010
-0.3010 PACK </s> -0.3010
-0.3010 PACMAN </s> -0.3010
-0.3010 SAD </s> -0.3010
-0.3010 SAY </s> -0.3010
-0.3010 SEE </s> -0.3010
-0.3010 SET </s> -0.3010
-0.3010 SHAKE </s> -0.3010
-0.3010 SNAKE </s> -0.3010
-0.3010 TEST </s> -0.3010
-0.3010 VOLTAGE </s> -0.3010
-0.3010 WHAT </s> -0.3010
-0.3010 WOOD </s> -0.3010

\3-grams:
-0.3010 <s> ANGRY </s>
-0.3010 <s> BALL </s>
-0.3010 <s> BATTERY </s>
-0.3010 <s> CANCEL </s>
-0.3010 <s> CHIP </s>
-0.3010 <s> COMMANDS </s>
-0.3010 <s> CONFIRM </s>
-0.3010 <s> EIGHT </s>
-0.3010 <s> FACE </s>
-0.3010 <s> FAN </s>
-0.3010 <s> FLAG </s>
-0.3010 <s> GET </s>
-0.3010 <s> GIF </s>
-0.3010 <s> HAPPY </s>
-0.3010 <s> HEAT </s>
-0.3010 <s> HELLO </s>
-0.3010 <s> LOW </s>
-0.3010 <s> MAN </s>
-0.3010 <s> MATRIX </s>
-0.3010 <s> OFF </s>
-0.3010 <s> OH </s>
-0.3010 <s> ON </s>
-0.3010 <s> OVER </s>
-0.3010 <s> OVERHEAT </s>
-0.3010 <s> PACK </s>
-0.3010 <s> PACMAN </s>
-0.3010 <s> SAD </s>
-0.3010 <s> SAY </s>
-0.3010 <s> SEE </s>
-0.3010 <s> SET </s>
-0.3010 <s> SHAKE </s>
-0.3010 <s> SNAKE </s>
-0.3010 <s> TEST </s>
-0.3010 <s> VOLTAGE </s>
-0.3010 <s> WHAT </s>
-0.3010 <s> WOOD </s>

\end\