Language model created by QuickLM on Tue Nov  8 10:16:41 EST 2022
Copyright (c) 1996-2010 Carnegie Mellon University and Alexander I. Rudnicky

The model is in standard ARPA format, designed by Doug Paul while he was at MITRE.

The code that was used to produce this language model is available in Open Source.
Please visit http://www.speech.cs.cmu.edu/tools/ for more information

The (fixed) discount mass is 0.5. The backoffs are computed using the ratio method.
This model based on a corpus of 42 sentences and 44 words

\data\
ngram 1=44
ngram 2=84
ngram 3=42

\1-grams:
-0.7782 </s> -0.3010
-0.7782 <s> -0.2218
-2.4014 ANGRY -0.2218
-2.4014 BALL -0.2218
-2.4014 BATTERY -0.2218
-2.4014 CANCEL -0.2218
-2.4014 CHIP -0.2218
-2.4014 COMMANDS -0.2218
-2.4014 CONFIRM -0.2218
-2.4014 EIGHT -0.2218
-2.4014 FACE -0.2218
-2.4014 FAN -0.2218
-2.4014 FLAG -0.2218
-2.4014 GET -0.2218
-2.4014 GIF -0.2218
-2.4014 HALLOWEEN -0.2218
-2.4014 HAPPY -0.2218
-2.4014 HEAT -0.2218
-2.4014 HELLO -0.2218
-2.4014 LOW -0.2218
-2.4014 MAN -0.2218
-2.4014 MATRIX -0.2218
-2.4014 OFF -0.2218
-2.4014 OH -0.2218
-2.4014 ON -0.2218
-2.4014 OVER -0.2218
-2.4014 OVERHEAT -0.2218
-2.4014 PACK -0.2218
-2.4014 PACMAN -0.2218
-2.4014 PANIC -0.2218
-2.4014 REBOOT -0.2218
-2.4014 SAD -0.2218
-2.4014 SAY -0.2218
-2.4014 SEE -0.2218
-2.4014 SET -0.2218
-2.4014 SHAKE -0.2218
-2.4014 SHOCK -0.2218
-2.4014 SHOCKED -0.2218
-2.4014 SNAKE -0.2218
-2.4014 SPOOKY -0.2218
-2.4014 TEST -0.2218
-2.4014 VOLTAGE -0.2218
-2.4014 WHAT -0.2218
-2.4014 WOOD -0.2218

\2-grams:
-1.9243 <s> ANGRY 0.0000
-1.9243 <s> BALL 0.0000
-1.9243 <s> BATTERY 0.0000
-1.9243 <s> CANCEL 0.0000
-1.9243 <s> CHIP 0.0000
-1.9243 <s> COMMANDS 0.0000
-1.9243 <s> CONFIRM 0.0000
-1.9243 <s> EIGHT 0.0000
-1.9243 <s> FACE 0.0000
-1.9243 <s> FAN 0.0000
-1.9243 <s> FLAG 0.0000
-1.9243 <s> GET 0.0000
-1.9243 <s> GIF 0.0000
-1.9243 <s> HALLOWEEN 0.0000
-1.9243 <s> HAPPY 0.0000
-1.9243 <s> HEAT 0.0000
-1.9243 <s> HELLO 0.0000
-1.9243 <s> LOW 0.0000
-1.9243 <s> MAN 0.0000
-1.9243 <s> MATRIX 0.0000
-1.9243 <s> OFF 0.0000
-1.9243 <s> OH 0.0000
-1.9243 <s> ON 0.0000
-1.9243 <s> OVER 0.0000
-1.9243 <s> OVERHEAT 0.0000
-1.9243 <s> PACK 0.0000
-1.9243 <s> PACMAN 0.0000
-1.9243 <s> PANIC 0.0000
-1.9243 <s> REBOOT 0.0000
-1.9243 <s> SAD 0.0000
-1.9243 <s> SAY 0.0000
-1.9243 <s> SEE 0.0000
-1.9243 <s> SET 0.0000
-1.9243 <s> SHAKE 0.0000
-1.9243 <s> SHOCK 0.0000
-1.9243 <s> SHOCKED 0.0000
-1.9243 <s> SNAKE 0.0000
-1.9243 <s> SPOOKY 0.0000
-1.9243 <s> TEST 0.0000
-1.9243 <s> VOLTAGE 0.0000
-1.9243 <s> WHAT 0.0000
-1.9243 <s> WOOD 0.0000
-0.3010 ANGRY </s> -0.3010
-0.3010 BALL </s> -0.3010
-0.3010 BATTERY </s> -0.3010
-0.3010 CANCEL </s> -0.3010
-0.3010 CHIP </s> -0.3010
-0.3010 COMMANDS </s> -0.3010
-0.3010 CONFIRM </s> -0.3010
-0.3010 EIGHT </s> -0.3010
-0.3010 FACE </s> -0.3010
-0.3010 FAN </s> -0.3010
-0.3010 FLAG </s> -0.3010
-0.3010 GET </s> -0.3010
-0.3010 GIF </s> -0.3010
-0.3010 HALLOWEEN </s> -0.3010
-0.3010 HAPPY </s> -0.3010
-0.3010 HEAT </s> -0.3010
-0.3010 HELLO </s> -0.3010
-0.3010 LOW </s> -0.3010
-0.3010 MAN </s> -0.3010
-0.3010 MATRIX </s> -0.3010
-0.3010 OFF </s> -0.3010
-0.3010 OH </s> -0.3010
-0.3010 ON </s> -0.3010
-0.3010 OVER </s> -0.3010
-0.3010 OVERHEAT </s> -0.3010
-0.3010 PACK </s> -0.3010
-0.3010 PACMAN </s> -0.3010
-0.3010 PANIC </s> -0.3010
-0.3010 REBOOT </s> -0.3010
-0.3010 SAD </s> -0.3010
-0.3010 SAY </s> -0.3010
-0.3010 SEE </s> -0.3010
-0.3010 SET </s> -0.3010
-0.3010 SHAKE </s> -0.3010
-0.3010 SHOCK </s> -0.3010
-0.3010 SHOCKED </s> -0.3010
-0.3010 SNAKE </s> -0.3010
-0.3010 SPOOKY </s> -0.3010
-0.3010 TEST </s> -0.3010
-0.3010 VOLTAGE </s> -0.3010
-0.3010 WHAT </s> -0.3010
-0.3010 WOOD </s> -0.3010

\3-grams:
-0.3010 <s> ANGRY </s>
-0.3010 <s> BALL </s>
-0.3010 <s> BATTERY </s>
-0.3010 <s> CANCEL </s>
-0.3010 <s> CHIP </s>
-0.3010 <s> COMMANDS </s>
-0.3010 <s> CONFIRM </s>
-0.3010 <s> EIGHT </s>
-0.3010 <s> FACE </s>
-0.3010 <s> FAN </s>
-0.3010 <s> FLAG </s>
-0.3010 <s> GET </s>
-0.3010 <s> GIF </s>
-0.3010 <s> HALLOWEEN </s>
-0.3010 <s> HAPPY </s>
-0.3010 <s> HEAT </s>
-0.3010 <s> HELLO </s>
-0.3010 <s> LOW </s>
-0.3010 <s> MAN </s>
-0.3010 <s> MATRIX </s>
-0.3010 <s> OFF </s>
-0.3010 <s> OH </s>
-0.3010 <s> ON </s>
-0.3010 <s> OVER </s>
-0.3010 <s> OVERHEAT </s>
-0.3010 <s> PACK </s>
-0.3010 <s> PACMAN </s>
-0.3010 <s> PANIC </s>
-0.3010 <s> REBOOT </s>
-0.3010 <s> SAD </s>
-0.3010 <s> SAY </s>
-0.3010 <s> SEE </s>
-0.3010 <s> SET </s>
-0.3010 <s> SHAKE </s>
-0.3010 <s> SHOCK </s>
-0.3010 <s> SHOCKED </s>
-0.3010 <s> SNAKE </s>
-0.3010 <s> SPOOKY </s>
-0.3010 <s> TEST </s>
-0.3010 <s> VOLTAGE </s>
-0.3010 <s> WHAT </s>
-0.3010 <s> WOOD </s>

\end\