Language model created by QuickLM on Fri Oct 28 16:55:22 EDT 2022
Copyright (c) 1996-2010 Carnegie Mellon University and Alexander I. Rudnicky

The model is in standard ARPA format, designed by Doug Paul while he was at MITRE.

The code that was used to produce this language model is available in Open Source.
Please visit http://www.speech.cs.cmu.edu/tools/ for more information

The (fixed) discount mass is 0.5. The backoffs are computed using the ratio method.
This model based on a corpus of 39 sentences and 41 words

\data\
ngram 1=41
ngram 2=78
ngram 3=39

\1-grams:
-0.7782 </s> -0.3010
-0.7782 <s> -0.2218
-2.3692 ANGRY -0.2218
-2.3692 BALL -0.2218
-2.3692 BATTERY -0.2218
-2.3692 CANCEL -0.2218
-2.3692 CHIP -0.2218
-2.3692 COMMANDS -0.2218
-2.3692 CONFIRM -0.2218
-2.3692 EIGHT -0.2218
-2.3692 FACE -0.2218
-2.3692 FAN -0.2218
-2.3692 FLAG -0.2218
-2.3692 GET -0.2218
-2.3692 GIF -0.2218
-2.3692 HALLOWEEN -0.2218
-2.3692 HAPPY -0.2218
-2.3692 HEAT -0.2218
-2.3692 HELLO -0.2218
-2.3692 LOW -0.2218
-2.3692 MAN -0.2218
-2.3692 MATRIX -0.2218
-2.3692 OFF -0.2218
-2.3692 OH -0.2218
-2.3692 ON -0.2218
-2.3692 OVER -0.2218
-2.3692 OVERHEAT -0.2218
-2.3692 PACK -0.2218
-2.3692 PACMAN -0.2218
-2.3692 SAD -0.2218
-2.3692 SAY -0.2218
-2.3692 SEE -0.2218
-2.3692 SET -0.2218
-2.3692 SHAKE -0.2218
-2.3692 SHOCK -0.2218
-2.3692 SHOCKED -0.2218
-2.3692 SNAKE -0.2218
-2.3692 TEST -0.2218
-2.3692 VOLTAGE -0.2218
-2.3692 WHAT -0.2218
-2.3692 WOOD -0.2218

\2-grams:
-1.8921 <s> ANGRY 0.0000
-1.8921 <s> BALL 0.0000
-1.8921 <s> BATTERY 0.0000
-1.8921 <s> CANCEL 0.0000
-1.8921 <s> CHIP 0.0000
-1.8921 <s> COMMANDS 0.0000
-1.8921 <s> CONFIRM 0.0000
-1.8921 <s> EIGHT 0.0000
-1.8921 <s> FACE 0.0000
-1.8921 <s> FAN 0.0000
-1.8921 <s> FLAG 0.0000
-1.8921 <s> GET 0.0000
-1.8921 <s> GIF 0.0000
-1.8921 <s> HALLOWEEN 0.0000
-1.8921 <s> HAPPY 0.0000
-1.8921 <s> HEAT 0.0000
-1.8921 <s> HELLO 0.0000
-1.8921 <s> LOW 0.0000
-1.8921 <s> MAN 0.0000
-1.8921 <s> MATRIX 0.0000
-1.8921 <s> OFF 0.0000
-1.8921 <s> OH 0.0000
-1.8921 <s> ON 0.0000
-1.8921 <s> OVER 0.0000
-1.8921 <s> OVERHEAT 0.0000
-1.8921 <s> PACK 0.0000
-1.8921 <s> PACMAN 0.0000
-1.8921 <s> SAD 0.0000
-1.8921 <s> SAY 0.0000
-1.8921 <s> SEE 0.0000
-1.8921 <s> SET 0.0000
-1.8921 <s> SHAKE 0.0000
-1.8921 <s> SHOCK 0.0000
-1.8921 <s> SHOCKED 0.0000
-1.8921 <s> SNAKE 0.0000
-1.8921 <s> TEST 0.0000
-1.8921 <s> VOLTAGE 0.0000
-1.8921 <s> WHAT 0.0000
-1.8921 <s> WOOD 0.0000
-0.3010 ANGRY </s> -0.3010
-0.3010 BALL </s> -0.3010
-0.3010 BATTERY </s> -0.3010
-0.3010 CANCEL </s> -0.3010
-0.3010 CHIP </s> -0.3010
-0.3010 COMMANDS </s> -0.3010
-0.3010 CONFIRM </s> -0.3010
-0.3010 EIGHT </s> -0.3010
-0.3010 FACE </s> -0.3010
-0.3010 FAN </s> -0.3010
-0.3010 FLAG </s> -0.3010
-0.3010 GET </s> -0.3010
-0.3010 GIF </s> -0.3010
-0.3010 HALLOWEEN </s> -0.3010
-0.3010 HAPPY </s> -0.3010
-0.3010 HEAT </s> -0.3010
-0.3010 HELLO </s> -0.3010
-0.3010 LOW </s> -0.3010
-0.3010 MAN </s> -0.3010
-0.3010 MATRIX </s> -0.3010
-0.3010 OFF </s> -0.3010
-0.3010 OH </s> -0.3010
-0.3010 ON </s> -0.3010
-0.3010 OVER </s> -0.3010
-0.3010 OVERHEAT </s> -0.3010
-0.3010 PACK </s> -0.3010
-0.3010 PACMAN </s> -0.3010
-0.3010 SAD </s> -0.3010
-0.3010 SAY </s> -0.3010
-0.3010 SEE </s> -0.3010
-0.3010 SET </s> -0.3010
-0.3010 SHAKE </s> -0.3010
-0.3010 SHOCK </s> -0.3010
-0.3010 SHOCKED </s> -0.3010
-0.3010 SNAKE </s> -0.3010
-0.3010 TEST </s> -0.3010
-0.3010 VOLTAGE </s> -0.3010
-0.3010 WHAT </s> -0.3010
-0.3010 WOOD </s> -0.3010

\3-grams:
-0.3010 <s> ANGRY </s>
-0.3010 <s> BALL </s>
-0.3010 <s> BATTERY </s>
-0.3010 <s> CANCEL </s>
-0.3010 <s> CHIP </s>
-0.3010 <s> COMMANDS </s>
-0.3010 <s> CONFIRM </s>
-0.3010 <s> EIGHT </s>
-0.3010 <s> FACE </s>
-0.3010 <s> FAN </s>
-0.3010 <s> FLAG </s>
-0.3010 <s> GET </s>
-0.3010 <s> GIF </s>
-0.3010 <s> HALLOWEEN </s>
-0.3010 <s> HAPPY </s>
-0.3010 <s> HEAT </s>
-0.3010 <s> HELLO </s>
-0.3010 <s> LOW </s>
-0.3010 <s> MAN </s>
-0.3010 <s> MATRIX </s>
-0.3010 <s> OFF </s>
-0.3010 <s> OH </s>
-0.3010 <s> ON </s>
-0.3010 <s> OVER </s>
-0.3010 <s> OVERHEAT </s>
-0.3010 <s> PACK </s>
-0.3010 <s> PACMAN </s>
-0.3010 <s> SAD </s>
-0.3010 <s> SAY </s>
-0.3010 <s> SEE </s>
-0.3010 <s> SET </s>
-0.3010 <s> SHAKE </s>
-0.3010 <s> SHOCK </s>
-0.3010 <s> SHOCKED </s>
-0.3010 <s> SNAKE </s>
-0.3010 <s> TEST </s>
-0.3010 <s> VOLTAGE </s>
-0.3010 <s> WHAT </s>
-0.3010 <s> WOOD </s>

\end\