Language model created by QuickLM on Wed Feb  1 15:25:48 EST 2023
Copyright (c) 1996-2010 Carnegie Mellon University and Alexander I. Rudnicky

The model is in standard ARPA format, designed by Doug Paul while he was at MITRE.

The code that was used to produce this language model is available in Open Source.
Please visit http://www.speech.cs.cmu.edu/tools/ for more information

The (fixed) discount mass is 0.5. The backoffs are computed using the ratio method.
This model based on a corpus of 83 sentences and 85 words

\data\
ngram 1=85
ngram 2=166
ngram 3=83

\1-grams:
-0.7782 </s> -0.3010
-0.7782 <s> -0.2218
-2.6972 ALARM -0.2218
-2.6972 ANGRY -0.2218
-2.6972 BALL -0.2218
-2.6972 BATTERY -0.2218
-2.6972 CALLED -0.2218
-2.6972 CANCEL -0.2218
-2.6972 CHAT -0.2218
-2.6972 CHIP -0.2218
-2.6972 COMMANDS -0.2218
-2.6972 CONFIRM -0.2218
-2.6972 EIGHT -0.2218
-2.6972 EIGHTEEN -0.2218
-2.6972 EIGHTY -0.2218
-2.6972 ELECTRIC -0.2218
-2.6972 ELEVEN -0.2218
-2.6972 FACE -0.2218
-2.6972 FAN -0.2218
-2.6972 FIFTEEN -0.2218
-2.6972 FIFTY -0.2218
-2.6972 FIVE -0.2218
-2.6972 FLAG -0.2218
-2.6972 FOR -0.2218
-2.6972 FORTY -0.2218
-2.6972 FOUR -0.2218
-2.6972 FOURTEEN -0.2218
-2.6972 FUR -0.2218
-2.6972 GET -0.2218
-2.6972 GIF -0.2218
-2.6972 HALLOWEEN -0.2218
-2.6972 HAPPY -0.2218
-2.6972 HEAT -0.2218
-2.6972 HELLO -0.2218
-2.6972 HOUR -0.2218
-2.6972 HOURS -0.2218
-2.6972 LOW -0.2218
-2.6972 MAN -0.2218
-2.6972 MATRIX -0.2218
-2.6972 MINUTE -0.2218
-2.6972 MINUTES -0.2218
-2.6972 NINE -0.2218
-2.6972 NINETEEN -0.2218
-2.6972 NINETY -0.2218
-2.6972 OFF -0.2218
-2.6972 OH -0.2218
-2.6972 ON -0.2218
-2.6972 ONE -0.2218
-2.6972 OVER -0.2218
-2.6972 OVERHEAT -0.2218
-2.6972 PACK -0.2218
-2.6972 PACMAN -0.2218
-2.6972 PANIC -0.2218
-2.6972 REBOOT -0.2218
-2.6972 SAD -0.2218
-2.6972 SAY -0.2218
-2.6972 SECURITY -0.2218
-2.6972 SEE -0.2218
-2.6972 SET -0.2218
-2.6972 SEVEN -0.2218
-2.6972 SEVENTEEN -0.2218
-2.6972 SEVENTY -0.2218
-2.6972 SHAKE -0.2218
-2.6972 SHOCK -0.2218
-2.6972 SHOCKED -0.2218
-2.6972 SIX -0.2218
-2.6972 SIXTEEN -0.2218
-2.6972 SIXTY -0.2218
-2.6972 SNAKE -0.2218
-2.6972 SPOOKY -0.2218
-2.6972 SUIT -0.2218
-2.6972 SUITS -0.2218
-2.6972 TELEGRAM -0.2218
-2.6972 TEN -0.2218
-2.6972 TEST -0.2218
-2.6972 THIRTEEN -0.2218
-2.6972 THIRTY -0.2218
-2.6972 THREE -0.2218
-2.6972 TIMER -0.2218
-2.6972 TWELVE -0.2218
-2.6972 TWENTY -0.2218
-2.6972 TWO -0.2218
-2.6972 VOLTAGE -0.2218
-2.6972 WHAT -0.2218
-2.6972 WOOD -0.2218

\2-grams:
-2.2201 <s> ALARM 0.0000
-2.2201 <s> ANGRY 0.0000
-2.2201 <s> BALL 0.0000
-2.2201 <s> BATTERY 0.0000
-2.2201 <s> CALLED 0.0000
-2.2201 <s> CANCEL 0.0000
-2.2201 <s> CHAT 0.0000
-2.2201 <s> CHIP 0.0000
-2.2201 <s> COMMANDS 0.0000
-2.2201 <s> CONFIRM 0.0000
-2.2201 <s> EIGHT 0.0000
-2.2201 <s> EIGHTEEN 0.0000
-2.2201 <s> EIGHTY 0.0000
-2.2201 <s> ELECTRIC 0.0000
-2.2201 <s> ELEVEN 0.0000
-2.2201 <s> FACE 0.0000
-2.2201 <s> FAN 0.0000
-2.2201 <s> FIFTEEN 0.0000
-2.2201 <s> FIFTY 0.0000
-2.2201 <s> FIVE 0.0000
-2.2201 <s> FLAG 0.0000
-2.2201 <s> FOR 0.0000
-2.2201 <s> FORTY 0.0000
-2.2201 <s> FOUR 0.0000
-2.2201 <s> FOURTEEN 0.0000
-2.2201 <s> FUR 0.0000
-2.2201 <s> GET 0.0000
-2.2201 <s> GIF 0.0000
-2.2201 <s> HALLOWEEN 0.0000
-2.2201 <s> HAPPY 0.0000
-2.2201 <s> HEAT 0.0000
-2.2201 <s> HELLO 0.0000
-2.2201 <s> HOUR 0.0000
-2.2201 <s> HOURS 0.0000
-2.2201 <s> LOW 0.0000
-2.2201 <s> MAN 0.0000
-2.2201 <s> MATRIX 0.0000
-2.2201 <s> MINUTE 0.0000
-2.2201 <s> MINUTES 0.0000
-2.2201 <s> NINE 0.0000
-2.2201 <s> NINETEEN 0.0000
-2.2201 <s> NINETY 0.0000
-2.2201 <s> OFF 0.0000
-2.2201 <s> OH 0.0000
-2.2201 <s> ON 0.0000
-2.2201 <s> ONE 0.0000
-2.2201 <s> OVER 0.0000
-2.2201 <s> OVERHEAT 0.0000
-2.2201 <s> PACK 0.0000
-2.2201 <s> PACMAN 0.0000
-2.2201 <s> PANIC 0.0000
-2.2201 <s> REBOOT 0.0000
-2.2201 <s> SAD 0.0000
-2.2201 <s> SAY 0.0000
-2.2201 <s> SECURITY 0.0000
-2.2201 <s> SEE 0.0000
-2.2201 <s> SET 0.0000
-2.2201 <s> SEVEN 0.0000
-2.2201 <s> SEVENTEEN 0.0000
-2.2201 <s> SEVENTY 0.0000
-2.2201 <s> SHAKE 0.0000
-2.2201 <s> SHOCK 0.0000
-2.2201 <s> SHOCKED 0.0000
-2.2201 <s> SIX 0.0000
-2.2201 <s> SIXTEEN 0.0000
-2.2201 <s> SIXTY 0.0000
-2.2201 <s> SNAKE 0.0000
-2.2201 <s> SPOOKY 0.0000
-2.2201 <s> SUIT 0.0000
-2.2201 <s> SUITS 0.0000
-2.2201 <s> TELEGRAM 0.0000
-2.2201 <s> TEN 0.0000
-2.2201 <s> TEST 0.0000
-2.2201 <s> THIRTEEN 0.0000
-2.2201 <s> THIRTY 0.0000
-2.2201 <s> THREE 0.0000
-2.2201 <s> TIMER 0.0000
-2.2201 <s> TWELVE 0.0000
-2.2201 <s> TWENTY 0.0000
-2.2201 <s> TWO 0.0000
-2.2201 <s> VOLTAGE 0.0000
-2.2201 <s> WHAT 0.0000
-2.2201 <s> WOOD 0.0000
-0.3010 ALARM </s> -0.3010
-0.3010 ANGRY </s> -0.3010
-0.3010 BALL </s> -0.3010
-0.3010 BATTERY </s> -0.3010
-0.3010 CALLED </s> -0.3010
-0.3010 CANCEL </s> -0.3010
-0.3010 CHAT </s> -0.3010
-0.3010 CHIP </s> -0.3010
-0.3010 COMMANDS </s> -0.3010
-0.3010 CONFIRM </s> -0.3010
-0.3010 EIGHT </s> -0.3010
-0.3010 EIGHTEEN </s> -0.3010
-0.3010 EIGHTY </s> -0.3010
-0.3010 ELECTRIC </s> -0.3010
-0.3010 ELEVEN </s> -0.3010
-0.3010 FACE </s> -0.3010
-0.3010 FAN </s> -0.3010
-0.3010 FIFTEEN </s> -0.3010
-0.3010 FIFTY </s> -0.3010
-0.3010 FIVE </s> -0.3010
-0.3010 FLAG </s> -0.3010
-0.3010 FOR </s> -0.3010
-0.3010 FORTY </s> -0.3010
-0.3010 FOUR </s> -0.3010
-0.3010 FOURTEEN </s> -0.3010
-0.3010 FUR </s> -0.3010
-0.3010 GET </s> -0.3010
-0.3010 GIF </s> -0.3010
-0.3010 HALLOWEEN </s> -0.3010
-0.3010 HAPPY </s> -0.3010
-0.3010 HEAT </s> -0.3010
-0.3010 HELLO </s> -0.3010
-0.3010 HOUR </s> -0.3010
-0.3010 HOURS </s> -0.3010
-0.3010 LOW </s> -0.3010
-0.3010 MAN </s> -0.3010
-0.3010 MATRIX </s> -0.3010
-0.3010 MINUTE </s> -0.3010
-0.3010 MINUTES </s> -0.3010
-0.3010 NINE </s> -0.3010
-0.3010 NINETEEN </s> -0.3010
-0.3010 NINETY </s> -0.3010
-0.3010 OFF </s> -0.3010
-0.3010 OH </s> -0.3010
-0.3010 ON </s> -0.3010
-0.3010 ONE </s> -0.3010
-0.3010 OVER </s> -0.3010
-0.3010 OVERHEAT </s> -0.3010
-0.3010 PACK </s> -0.3010
-0.3010 PACMAN </s> -0.3010
-0.3010 PANIC </s> -0.3010
-0.3010 REBOOT </s> -0.3010
-0.3010 SAD </s> -0.3010
-0.3010 SAY </s> -0.3010
-0.3010 SECURITY </s> -0.3010
-0.3010 SEE </s> -0.3010
-0.3010 SET </s> -0.3010
-0.3010 SEVEN </s> -0.3010
-0.3010 SEVENTEEN </s> -0.3010
-0.3010 SEVENTY </s> -0.3010
-0.3010 SHAKE </s> -0.3010
-0.3010 SHOCK </s> -0.3010
-0.3010 SHOCKED </s> -0.3010
-0.3010 SIX </s> -0.3010
-0.3010 SIXTEEN </s> -0.3010
-0.3010 SIXTY </s> -0.3010
-0.3010 SNAKE </s> -0.3010
-0.3010 SPOOKY </s> -0.3010
-0.3010 SUIT </s> -0.3010
-0.3010 SUITS </s> -0.3010
-0.3010 TELEGRAM </s> -0.3010
-0.3010 TEN </s> -0.3010
-0.3010 TEST </s> -0.3010
-0.3010 THIRTEEN </s> -0.3010
-0.3010 THIRTY </s> -0.3010
-0.3010 THREE </s> -0.3010
-0.3010 TIMER </s> -0.3010
-0.3010 TWELVE </s> -0.3010
-0.3010 TWENTY </s> -0.3010
-0.3010 TWO </s> -0.3010
-0.3010 VOLTAGE </s> -0.3010
-0.3010 WHAT </s> -0.3010
-0.3010 WOOD </s> -0.3010

\3-grams:
-0.3010 <s> ALARM </s>
-0.3010 <s> ANGRY </s>
-0.3010 <s> BALL </s>
-0.3010 <s> BATTERY </s>
-0.3010 <s> CALLED </s>
-0.3010 <s> CANCEL </s>
-0.3010 <s> CHAT </s>
-0.3010 <s> CHIP </s>
-0.3010 <s> COMMANDS </s>
-0.3010 <s> CONFIRM </s>
-0.3010 <s> EIGHT </s>
-0.3010 <s> EIGHTEEN </s>
-0.3010 <s> EIGHTY </s>
-0.3010 <s> ELECTRIC </s>
-0.3010 <s> ELEVEN </s>
-0.3010 <s> FACE </s>
-0.3010 <s> FAN </s>
-0.3010 <s> FIFTEEN </s>
-0.3010 <s> FIFTY </s>
-0.3010 <s> FIVE </s>
-0.3010 <s> FLAG </s>
-0.3010 <s> FOR </s>
-0.3010 <s> FORTY </s>
-0.3010 <s> FOUR </s>
-0.3010 <s> FOURTEEN </s>
-0.3010 <s> FUR </s>
-0.3010 <s> GET </s>
-0.3010 <s> GIF </s>
-0.3010 <s> HALLOWEEN </s>
-0.3010 <s> HAPPY </s>
-0.3010 <s> HEAT </s>
-0.3010 <s> HELLO </s>
-0.3010 <s> HOUR </s>
-0.3010 <s> HOURS </s>
-0.3010 <s> LOW </s>
-0.3010 <s> MAN </s>
-0.3010 <s> MATRIX </s>
-0.3010 <s> MINUTE </s>
-0.3010 <s> MINUTES </s>
-0.3010 <s> NINE </s>
-0.3010 <s> NINETEEN </s>
-0.3010 <s> NINETY </s>
-0.3010 <s> OFF </s>
-0.3010 <s> OH </s>
-0.3010 <s> ON </s>
-0.3010 <s> ONE </s>
-0.3010 <s> OVER </s>
-0.3010 <s> OVERHEAT </s>
-0.3010 <s> PACK </s>
-0.3010 <s> PACMAN </s>
-0.3010 <s> PANIC </s>
-0.3010 <s> REBOOT </s>
-0.3010 <s> SAD </s>
-0.3010 <s> SAY </s>
-0.3010 <s> SECURITY </s>
-0.3010 <s> SEE </s>
-0.3010 <s> SET </s>
-0.3010 <s> SEVEN </s>
-0.3010 <s> SEVENTEEN </s>
-0.3010 <s> SEVENTY </s>
-0.3010 <s> SHAKE </s>
-0.3010 <s> SHOCK </s>
-0.3010 <s> SHOCKED </s>
-0.3010 <s> SIX </s>
-0.3010 <s> SIXTEEN </s>
-0.3010 <s> SIXTY </s>
-0.3010 <s> SNAKE </s>
-0.3010 <s> SPOOKY </s>
-0.3010 <s> SUIT </s>
-0.3010 <s> SUITS </s>
-0.3010 <s> TELEGRAM </s>
-0.3010 <s> TEN </s>
-0.3010 <s> TEST </s>
-0.3010 <s> THIRTEEN </s>
-0.3010 <s> THIRTY </s>
-0.3010 <s> THREE </s>
-0.3010 <s> TIMER </s>
-0.3010 <s> TWELVE </s>
-0.3010 <s> TWENTY </s>
-0.3010 <s> TWO </s>
-0.3010 <s> VOLTAGE </s>
-0.3010 <s> WHAT </s>
-0.3010 <s> WOOD </s>

\end\