Language model created by QuickLM on Fri Oct 28 17:31:05 EDT 2022
Copyright (c) 1996-2010 Carnegie Mellon University and Alexander I. Rudnicky

The model is in standard ARPA format, designed by Doug Paul while he was at MITRE.

The code that was used to produce this language model is available in Open Source.
Please visit http://www.speech.cs.cmu.edu/tools/ for more information

The (fixed) discount mass is 0.5. The backoffs are computed using the ratio method.
This model based on a corpus of 40 sentences and 42 words

\data\
ngram 1=42
ngram 2=80
ngram 3=40

\1-grams:
-0.7782 </s> -0.3010
-0.7782 <s> -0.2218
-2.3802 ANGRY -0.2218
-2.3802 BALL -0.2218
-2.3802 BATTERY -0.2218
-2.3802 CANCEL -0.2218
-2.3802 CHIP -0.2218
-2.3802 COMMANDS -0.2218
-2.3802 CONFIRM -0.2218
-2.3802 EIGHT -0.2218
-2.3802 FACE -0.2218
-2.3802 FAN -0.2218
-2.3802 FLAG -0.2218
-2.3802 GET -0.2218
-2.3802 GIF -0.2218
-2.3802 HALLOWEEN -0.2218
-2.3802 HAPPY -0.2218
-2.3802 HEAT -0.2218
-2.3802 HELLO -0.2218
-2.3802 LOW -0.2218
-2.3802 MAN -0.2218
-2.3802 MATRIX -0.2218
-2.3802 OFF -0.2218
-2.3802 OH -0.2218
-2.3802 ON -0.2218
-2.3802 OVER -0.2218
-2.3802 OVERHEAT -0.2218
-2.3802 PACK -0.2218
-2.3802 PACMAN -0.2218
-2.3802 SAD -0.2218
-2.3802 SAY -0.2218
-2.3802 SEE -0.2218
-2.3802 SET -0.2218
-2.3802 SHAKE -0.2218
-2.3802 SHOCK -0.2218
-2.3802 SHOCKED -0.2218
-2.3802 SNAKE -0.2218
-2.3802 SPOOKY -0.2218
-2.3802 TEST -0.2218
-2.3802 VOLTAGE -0.2218
-2.3802 WHAT -0.2218
-2.3802 WOOD -0.2218

\2-grams:
-1.9031 <s> ANGRY 0.0000
-1.9031 <s> BALL 0.0000
-1.9031 <s> BATTERY 0.0000
-1.9031 <s> CANCEL 0.0000
-1.9031 <s> CHIP 0.0000
-1.9031 <s> COMMANDS 0.0000
-1.9031 <s> CONFIRM 0.0000
-1.9031 <s> EIGHT 0.0000
-1.9031 <s> FACE 0.0000
-1.9031 <s> FAN 0.0000
-1.9031 <s> FLAG 0.0000
-1.9031 <s> GET 0.0000
-1.9031 <s> GIF 0.0000
-1.9031 <s> HALLOWEEN 0.0000
-1.9031 <s> HAPPY 0.0000
-1.9031 <s> HEAT 0.0000
-1.9031 <s> HELLO 0.0000
-1.9031 <s> LOW 0.0000
-1.9031 <s> MAN 0.0000
-1.9031 <s> MATRIX 0.0000
-1.9031 <s> OFF 0.0000
-1.9031 <s> OH 0.0000
-1.9031 <s> ON 0.0000
-1.9031 <s> OVER 0.0000
-1.9031 <s> OVERHEAT 0.0000
-1.9031 <s> PACK 0.0000
-1.9031 <s> PACMAN 0.0000
-1.9031 <s> SAD 0.0000
-1.9031 <s> SAY 0.0000
-1.9031 <s> SEE 0.0000
-1.9031 <s> SET 0.0000
-1.9031 <s> SHAKE 0.0000
-1.9031 <s> SHOCK 0.0000
-1.9031 <s> SHOCKED 0.0000
-1.9031 <s> SNAKE 0.0000
-1.9031 <s> SPOOKY 0.0000
-1.9031 <s> TEST 0.0000
-1.9031 <s> VOLTAGE 0.0000
-1.9031 <s> WHAT 0.0000
-1.9031 <s> WOOD 0.0000
-0.3010 ANGRY </s> -0.3010
-0.3010 BALL </s> -0.3010
-0.3010 BATTERY </s> -0.3010
-0.3010 CANCEL </s> -0.3010
-0.3010 CHIP </s> -0.3010
-0.3010 COMMANDS </s> -0.3010
-0.3010 CONFIRM </s> -0.3010
-0.3010 EIGHT </s> -0.3010
-0.3010 FACE </s> -0.3010
-0.3010 FAN </s> -0.3010
-0.3010 FLAG </s> -0.3010
-0.3010 GET </s> -0.3010
-0.3010 GIF </s> -0.3010
-0.3010 HALLOWEEN </s> -0.3010
-0.3010 HAPPY </s> -0.3010
-0.3010 HEAT </s> -0.3010
-0.3010 HELLO </s> -0.3010
-0.3010 LOW </s> -0.3010
-0.3010 MAN </s> -0.3010
-0.3010 MATRIX </s> -0.3010
-0.3010 OFF </s> -0.3010
-0.3010 OH </s> -0.3010
-0.3010 ON </s> -0.3010
-0.3010 OVER </s> -0.3010
-0.3010 OVERHEAT </s> -0.3010
-0.3010 PACK </s> -0.3010
-0.3010 PACMAN </s> -0.3010
-0.3010 SAD </s> -0.3010
-0.3010 SAY </s> -0.3010
-0.3010 SEE </s> -0.3010
-0.3010 SET </s> -0.3010
-0.3010 SHAKE </s> -0.3010
-0.3010 SHOCK </s> -0.3010
-0.3010 SHOCKED </s> -0.3010
-0.3010 SNAKE </s> -0.3010
-0.3010 SPOOKY </s> -0.3010
-0.3010 TEST </s> -0.3010
-0.3010 VOLTAGE </s> -0.3010
-0.3010 WHAT </s> -0.3010
-0.3010 WOOD </s> -0.3010

\3-grams:
-0.3010 <s> ANGRY </s>
-0.3010 <s> BALL </s>
-0.3010 <s> BATTERY </s>
-0.3010 <s> CANCEL </s>
-0.3010 <s> CHIP </s>
-0.3010 <s> COMMANDS </s>
-0.3010 <s> CONFIRM </s>
-0.3010 <s> EIGHT </s>
-0.3010 <s> FACE </s>
-0.3010 <s> FAN </s>
-0.3010 <s> FLAG </s>
-0.3010 <s> GET </s>
-0.3010 <s> GIF </s>
-0.3010 <s> HALLOWEEN </s>
-0.3010 <s> HAPPY </s>
-0.3010 <s> HEAT </s>
-0.3010 <s> HELLO </s>
-0.3010 <s> LOW </s>
-0.3010 <s> MAN </s>
-0.3010 <s> MATRIX </s>
-0.3010 <s> OFF </s>
-0.3010 <s> OH </s>
-0.3010 <s> ON </s>
-0.3010 <s> OVER </s>
-0.3010 <s> OVERHEAT </s>
-0.3010 <s> PACK </s>
-0.3010 <s> PACMAN </s>
-0.3010 <s> SAD </s>
-0.3010 <s> SAY </s>
-0.3010 <s> SEE </s>
-0.3010 <s> SET </s>
-0.3010 <s> SHAKE </s>
-0.3010 <s> SHOCK </s>
-0.3010 <s> SHOCKED </s>
-0.3010 <s> SNAKE </s>
-0.3010 <s> SPOOKY </s>
-0.3010 <s> TEST </s>
-0.3010 <s> VOLTAGE </s>
-0.3010 <s> WHAT </s>
-0.3010 <s> WOOD </s>

\end\